{
  "name": "model_11",
  "desc": "y ~ 0 + X0+X8+X9+X10",
  "target": "y",
  "prediction": "prediction",
  "var_weights": "weight",
  "link_function": "identity",
  "error_dist": "gaussian",
  "explained_variance": 0.9571630831087559,
  "feature_summary": [
    {
      "name": "X0",
      "data": {
        "bin_edge_right": [
          -4.357, -4.167, -3.976, -3.785, -3.595, -3.404, -3.213, -3.022,
          -2.832, -2.641, -2.45, -2.26, -2.069, -1.878, -1.688, -1.497, -1.306,
          -1.115, -0.925, -0.734, -0.543, -0.353, -0.162, 0.0289, 0.22, 0.41,
          0.601, 0.792, 0.982, 1.173, 1.364, 1.555, 1.745, 1.936, 2.127, 2.317,
          2.508, 2.699, 2.89, 3.08, 3.271, 3.462, 3.652, 3.843, 4.034, 4.225,
          4.415, 4.606, 4.987
        ],
        "sum_target": [
          -901.0534255622357, -1287.5509495986023, -2099.192457667953,
          -4703.959480616938, -9537.821847519399, -18857.98238649876,
          -28736.18966908795, -60427.39430323594, -92705.07620188437,
          -147821.0612308972, -226892.50272453105, -332907.2292058177,
          -481350.7899793677, -640859.0609830576, -818874.1616139174,
          -1015273.5505978904, -1198637.5468178927, -1341426.1153465975,
          -1378378.746215697, -1348557.5517120883, -1217830.880530434,
          -924062.4326875348, -531091.7453087033, -158091.60116384842,
          247945.45526014885, 674301.1694958513, 1033325.6152602247,
          1242401.3530554317, 1355798.187052279, 1383153.422081955,
          1284366.4926374522, 1141493.018201981, 974290.9655570979,
          780368.9207915323, 575155.3235879234, 429106.3323276931,
          306791.1881915653, 204961.72814287906, 128332.87997956359,
          79467.75669144039, 44860.55510358982, 25913.08712354762,
          16218.98925890308, 8181.308856826089, 4392.81336403818,
          1487.2154677743454, 788.117652436968, 893.7512027440173,
          172.97448308669507
        ],
        "sum_prediction": [
          -876.8266963778947, -1249.96582880792, -2121.4620703571386,
          -4783.850017087235, -9730.552258343994, -18887.55383774558,
          -28416.987036083316, -59961.543243746906, -92742.06098834463,
          -148036.12880631938, -227640.48655959885, -333523.1437876414,
          -478941.72729357926, -639896.6464747522, -819120.3419419004,
          -1016087.9482109011, -1194773.6044403806, -1340112.2154816904,
          -1379435.9451411008, -1353152.5636910973, -1213483.7103943534,
          -923938.2330694004, -530221.661512171, -160479.83046615374,
          246191.38073017914, 675119.2835986454, 1038490.9030134239,
          1248204.527308795, 1360189.8548573775, 1379470.1515343592,
          1285819.6165407442, 1139619.445748261, 974826.5299430621,
          780220.4119200186, 576384.0072960274, 430340.18644545786,
          305303.1858830164, 205495.00631283474, 127824.52973119351,
          79394.62401309746, 44463.25463055656, 26552.78483247856,
          16088.728162912597, 7996.7907526249155, 4356.946695901045,
          1509.7113132243808, 809.898493297658, 914.5576528585888,
          183.6902545937878
        ],
        "sum_weight": [
          6, 8, 17, 45, 91, 182, 285, 589, 1049, 1823, 3029, 4737, 7449, 10877,
          15500, 21387, 28543, 36446, 45253, 53524, 61834, 68745, 73546, 75957,
          75171, 72236, 67360, 59751, 51351, 42841, 34038, 26279, 19643, 14024,
          9721, 6442, 4119, 2633, 1539, 906, 481, 264, 144, 72, 32, 15, 7, 8, 1
        ],
        "wtd_avg_prediction": [
          -146.1377827296491, -156.24572860099, -124.79188649159639,
          -106.30777815749411, -106.92914569608784, -103.77776833926144,
          -99.7087264423976, -101.8022805496552, -88.40997234351252,
          -81.20467844559484, -75.15367664562524, -70.40809452979553,
          -64.29611052404071, -58.83025158359403, -52.84647367367099,
          -47.50960621924071, -41.85872558737276, -36.769802323483795,
          -30.482751312423503, -25.281230171345513, -19.62486189465914,
          -13.440079032211804, -7.209388158596947, -2.1127721008748863,
          3.275084550294384, 9.346022531682891, 15.41702646991425,
          20.89010271474611, 26.4880889341469, 32.199765447453586,
          37.77600377638945, 43.36616483687587, 49.627171508581284,
          55.634655727325914, 59.2926661141886, 66.80226427281247,
          74.12070548264539, 78.04595758178304, 83.05687441922905,
          87.63203533454465, 92.43919881612591, 100.57873042605515,
          111.72727890911526, 111.0665382309016, 136.15458424690766,
          100.64742088162538, 115.69978475680828, 114.3197066073236,
          183.6902545937878
        ],
        "wtd_avg_target": [
          -150.17557092703927, -160.9438686998253, -123.48190927458548,
          -104.53243290259863, -104.81122909361977, -103.61528783790527,
          -100.82873568101036, -102.59319915659752, -88.374715159089,
          -81.08670391162765, -74.90673579548731, -70.27807245214643,
          -64.6195180533451, -58.918733196934596, -52.83059107186564,
          -47.47152712385516, -41.994098266401316, -36.805852915178555,
          -30.459389349119327, -25.19538060892475, -19.695165774985185,
          -13.441885703506216, -7.2212186292756, -2.0813302416347197,
          3.298419008130115, 9.334696958522777, 15.340344644599535,
          20.792980084943043, 26.402566396998676, 32.285740810951076,
          37.73331255177896, 43.43746026112032, 49.599906610858724,
          55.64524535022335, 59.16627132886775, 66.61073150072852,
          74.48195877435428, 77.84342124682075, 83.38718647145133,
          87.71275573006665, 93.26518732555056, 98.15563304374098,
          112.63186985349361, 113.62928967814013, 137.27541762619313,
          99.14769785162302, 112.588236062424, 111.71890034300216,
          172.97448308669507
        ]
      }
    },
    {
      "name": "X8",
      "data": {
        "bin_edge_right": [
          -4.391, -4.201, -4.01, -3.82, -3.629, -3.439, -3.248, -3.058, -2.867,
          -2.677, -2.486, -2.296, -2.105, -1.915, -1.724, -1.534, -1.343,
          -1.153, -0.962, -0.772, -0.581, -0.391, -0.2, -0.00954, 0.181, 0.371,
          0.562, 0.753, 0.943, 1.134, 1.324, 1.515, 1.705, 1.896, 2.086, 2.277,
          2.467, 2.658, 2.848, 3.039, 3.229, 3.42, 3.61, 3.801, 3.991, 4.182,
          4.372, 4.563, 4.753, 4.944
        ],
        "sum_target": [
          -217.61657844957332, -1872.1528785742662, -2589.336771488948,
          -5439.217753467579, -12962.344753182986, -26586.38463442798,
          -48454.3472034995, -83388.21858430433, -136807.8855504467,
          -224465.62656102373, -359157.4122574642, -512279.41725972074,
          -747527.5155231779, -1034098.8091629348, -1326446.718715275,
          -1628604.2300667425, -1925391.8812199954, -2152079.204158992,
          -2286605.2158776224, -2270208.0837392677, -2020938.770392904,
          -1612133.4411803142, -1052032.503078661, -402383.3919072085,
          320219.6494915821, 1001108.8688948117, 1537764.4198250237,
          1998503.6859951052, 2217798.5752747823, 2290975.7315884475,
          2180121.5132545712, 1964254.6771544947, 1671225.1023958735,
          1346253.7515256356, 1051201.367171981, 769929.8211727666,
          536375.061915335, 366903.56975546613, 240075.6900622817,
          146903.1925614886, 83352.7226136785, 50846.91473931318,
          25252.697110694375, 17041.239290864913, 8741.740475502962,
          5606.43482221118, 2601.9506765790093, 1146.5909627920912,
          1073.0021381699369, 249.17892771223055
        ],
        "sum_prediction": [
          -225.1083105612122, -1881.8255497806654, -2639.691818633055,
          -5665.570692721421, -12908.377030849619, -26501.789998433094,
          -48198.593077526595, -83050.23914739229, -136127.97385444533,
          -224797.88317110314, -357909.7478930768, -512362.8717395421,
          -748964.0897296915, -1034184.87020191, -1326166.5288333977,
          -1625332.503458712, -1926144.554511444, -2149112.448529687,
          -2289499.0659554717, -2270404.0049720113, -2023157.7021027857,
          -1614169.7259054787, -1050278.8526106055, -401637.8039385171,
          323837.9321419046, 1000269.9834845628, 1542540.2488680864,
          2000752.6262781445, 2223123.281124425, 2293414.8924617665,
          2180339.08038326, 1960135.9928888353, 1672053.657761945,
          1343709.247532349, 1051902.6351174028, 771538.2911794431,
          537225.192455047, 365471.950942566, 240595.9275822947,
          146531.27413878342, 83396.16885364463, 51106.95771474475,
          25313.730037819776, 16915.526263628533, 8688.958102270211,
          5580.160144028399, 2581.2862358717753, 1196.9732549057323,
          1014.8478047171806, 240.01869833682088
        ],
        "sum_weight": [
          1, 9, 13, 28, 72, 150, 283, 522, 921, 1632, 2766, 4301, 6772, 10329,
          14721, 20089, 26943, 34829, 43829, 52460, 60486, 67437, 72538, 75327,
          75268, 73112, 68069, 61265, 53033, 44413, 35598, 27790, 20776, 15143,
          10578, 7132, 4609, 2847, 1738, 990, 541, 303, 148, 91, 47, 27, 12, 6,
          5, 1
        ],
        "wtd_avg_prediction": [
          -225.1083105612122, -209.09172775340727, -203.0532168179273,
          -202.34181045433647, -179.28301431735582, -176.67859998955396,
          -170.31304974391023, -159.10007499500438, -147.8045318723619,
          -137.74380096268575, -129.39614891289833, -119.1264523923604,
          -110.59717804632184, -100.12439444301579, -90.0867148178383,
          -80.90659084368122, -71.48960971352277, -61.70468427257994,
          -52.237081976670055, -43.27876486793769, -33.44836329237817,
          -23.935965803720194, -14.479015862177143, -5.3319235325781875,
          4.302464953790516, 13.681337994919614, 22.66142074759562,
          32.657351281778254, 41.91962138902995, 51.63836922661758,
          61.24892073664981, 70.53386084522617, 80.48005668858033,
          88.73467922686054, 99.44248772144098, 108.1797940520812,
          116.56003307768432, 128.37089952320548, 138.43263957554356,
          148.01138801897315, 154.15188327845587, 168.66982744140182,
          171.03871647175524, 185.88490399591794, 184.87144898447258,
          206.67259792697774, 215.10718632264795, 199.49554248428873,
          202.9695609434361, 240.01869833682088
        ],
        "wtd_avg_target": [
          -217.61657844957332, -208.0169865082518, -199.179751652996,
          -194.2577769095564, -180.03256601643037, -177.24256422951987,
          -171.2167745706696, -159.74754518065964, -148.54276389842204,
          -137.54021235356845, -129.84722062815047, -119.10704888624058,
          -110.38504363898079, -100.11606246131618, -90.10574816352658,
          -81.06945243997922, -71.46167394944867, -61.789864887277616,
          -52.17105605598171, -43.275030189463735, -33.41167824608842,
          -23.90577044026742, -14.503191473140436, -5.341821550137514,
          4.254392962368897, 13.69281197197193, 22.591259160925294,
          32.62064287921497, 41.81921775639285, 51.58344925108521,
          61.24280895709229, 70.6820682675241, 80.44017628012483,
          88.90271092423137, 99.37619277481384, 107.95426544766778,
          116.37558297143306, 128.87375123128422, 138.13330843629558,
          148.38706319342282, 154.07157599570888, 167.81159979971346,
          170.62633182901604, 187.26636583368037, 185.9944782021907,
          207.64573415596965, 216.82922304825078, 191.09849379868186,
          214.60042763398738, 249.17892771223055
        ]
      }
    },
    {
      "name": "X9",
      "data": {
        "bin_edge_right": [
          -4.801, -4.607, -4.413, -4.219, -4.026, -3.832, -3.638, -3.444, -3.25,
          -3.056, -2.863, -2.669, -2.475, -2.281, -2.087, -1.893, -1.699,
          -1.506, -1.312, -1.118, -0.924, -0.73, -0.536, -0.343, -0.149, 0.0451,
          0.239, 0.433, 0.627, 0.82, 1.014, 1.208, 1.402, 1.596, 1.79, 1.983,
          2.177, 2.371, 2.565, 2.759, 2.953, 3.146, 3.34, 3.534, 3.728, 3.922,
          4.116, 4.31, 4.503, 4.697
        ],
        "sum_target": [
          -399.03689170157156, -254.38226084512962, -1423.7109588393776,
          -1163.535355259366, -2338.630555378553, -4837.176775560081,
          -7136.379975910134, -18176.309804354936, -31441.021166219485,
          -53247.132516838494, -90892.21229085674, -152174.50571179696,
          -240989.1743287144, -369463.34769520693, -508520.1576371609,
          -691247.5608556172, -918977.8465385592, -1120144.55381661,
          -1363634.7343708463, -1480308.3444735978, -1505392.7755279513,
          -1496333.4808759154, -1340035.8862155434, -985185.712399026,
          -657375.1823540254, -128857.43193075256, 347742.6154065643,
          815471.0564581715, 1177962.4749876389, 1426928.739782285,
          1516120.0270057626, 1533280.0099963346, 1416887.4574758885,
          1248628.0690463488, 1031050.801665852, 800113.7402087548,
          605305.2926063279, 438588.22645929316, 292740.57510286174,
          195954.00464529547, 125951.68837510621, 69099.50241922698,
          45053.221259965656, 22929.999883877786, 10403.425492016464,
          6144.324157040834, 3016.7391969875207, 2289.832661330345,
          673.0140213603064, 472.80895681451665
        ],
        "sum_prediction": [
          -400.4123703235609, -237.95716757355524, -1432.7392351417593,
          -1180.7455510315967, -2400.448247569429, -4859.598941249435,
          -7048.934394426133, -18301.78422756931, -31432.99939887911,
          -53736.97598136535, -90494.47196359285, -152348.02282665417,
          -240337.88410547585, -367873.18039604544, -508953.09918352147,
          -690729.8248248649, -919524.896219674, -1120505.9403313028,
          -1356987.4810353385, -1480538.3772030054, -1508132.7245268961,
          -1500128.9542097258, -1340611.5489874894, -983918.50319347,
          -650946.6661594663, -125892.90587881123, 352412.23813078256,
          806134.7463798819, 1182345.0156991945, 1428378.3563139685,
          1514186.556791185, 1537041.6203308003, 1413770.6925003715,
          1247563.3967303382, 1033031.3158052828, 802099.5709579736,
          605911.3113862441, 439044.59935615055, 292914.59147995146,
          196703.46963239723, 125841.13861542096, 69243.2249430764,
          44698.27110048187, 22749.660965384668, 10446.276393222224,
          6133.229970779838, 2967.5371705215157, 2334.568954140304,
          692.3037880483828, 468.40158187093954
        ],
        "sum_weight": [
          1, 1, 7, 8, 16, 35, 65, 153, 302, 541, 932, 1670, 2776, 4678, 7028,
          10706, 15456, 21344, 28994, 37045, 45536, 54908, 63513, 70098, 75410,
          76910, 76406, 73080, 67337, 59675, 50560, 41577, 32950, 25359, 18568,
          12886, 8961, 5850, 3604, 2239, 1302, 700, 411, 202, 102, 50, 24, 16,
          4, 4
        ],
        "wtd_avg_prediction": [
          -400.4123703235609, -237.95716757355524, -204.6770335916799,
          -147.5931938789496, -150.0280154730893, -138.84568403569813,
          -108.44514452963281, -119.61950475535497, -104.08277946648712,
          -99.32897593598031, -97.09707292230992, -91.22636097404441,
          -86.5770475884279, -78.63898683113413, -72.41791394187841,
          -64.51801091209273, -59.4930704075876, -52.49746721942011,
          -46.80235500570251, -39.96594350662722, -33.11956967074175,
          -27.32077209531809, -21.107671641829064, -14.036327758188108,
          -8.632100068418861, -1.636886047052545, 4.612363402491723,
          11.030853125066802, 17.558623278423372, 23.93595905008745,
          29.94831006311679, 36.96855521877, 42.9065460546395, 49.1960801581426,
          55.635034241990674, 62.24581491215068, 67.61648380607568,
          75.05035886429924, 81.2748589012074, 87.85326915247755,
          96.65218019617585, 98.91889277582344, 108.75491751942062,
          112.62208398705282, 102.41447444335513, 122.66459941559677,
          123.64738210506316, 145.910559633769, 173.0759470120957,
          117.10039546773488
        ],
        "wtd_avg_target": [
          -399.03689170157156, -254.38226084512962, -203.3872798341968,
          -145.44191940742076, -146.16440971115955, -138.20505073028804,
          -109.7904611678482, -118.79941048597998, -104.1093416099983,
          -98.42353515127263, -97.5238329301038, -91.12245851005805,
          -86.81166222215937, -78.97891143548674, -72.35631155907241,
          -64.56637033958688, -59.45767640648028, -52.48053569230744,
          -47.03161807169919, -39.959733957986174, -33.05939861928916,
          -27.251647863260644, -21.09860794192596, -14.05440543808705,
          -8.717347597852081, -1.6754314384443187, 4.551247485885458,
          11.158607778573774, 17.493539584294503, 23.911667193670464,
          29.986551167044354, 36.87808187210079, 43.0011367974473,
          49.23806416050904, 55.528371481357816, 62.091707295417876,
          67.54885532935252, 74.97234640329798, 81.22657466783068,
          87.5185371350136, 96.7370878457037, 98.71357488460997,
          109.61854321159527, 113.51485091028607, 101.99436756878886,
          122.88648314081667, 125.6974665411467, 143.11454133314658,
          168.2535053400766, 118.20223920362916
        ]
      }
    },
    {
      "name": "X10",
      "data": {
        "bin_edge_right": [
          -4.36, -4.168, -3.976, -3.785, -3.593, -3.402, -3.21, -3.018, -2.827,
          -2.635, -2.444, -2.252, -2.06, -1.869, -1.677, -1.486, -1.294, -1.102,
          -0.911, -0.719, -0.527, -0.336, -0.144, 0.0474, 0.239, 0.431, 0.622,
          0.814, 1.005, 1.197, 1.389, 1.58, 1.772, 1.964, 2.155, 2.347, 2.538,
          2.73, 2.922, 3.113, 3.305, 3.496, 3.688, 3.88, 4.071, 4.263, 4.455,
          4.646, 5.029
        ],
        "sum_target": [
          -955.2555372944848, -1011.5694003285121, -2676.4783331584827,
          -5464.120085252891, -11165.355237223846, -20505.1903693727,
          -37794.125440632226, -59642.881647797985, -106101.54516694143,
          -167763.6473310354, -257967.92718324438, -382673.7588270269,
          -535861.64379462, -722635.0521135111, -952018.201924519,
          -1150660.4072554552, -1324921.268185628, -1461584.486687212,
          -1519130.0043051576, -1481828.0520746885, -1285786.1555410617,
          -1002361.3463887825, -557934.2772662493, -168946.3573968432,
          311731.8017462337, 794260.2216988653, 1161878.7258310874,
          1422074.147751653, 1526490.9027885601, 1528311.6785787882,
          1434056.3478975163, 1227372.3559337582, 1035357.9081362392,
          833464.3995067191, 617793.4902408612, 448740.54005260207,
          311253.75914713746, 208418.47795900563, 133328.06532270287,
          82239.787427301, 46952.00080316128, 27290.07859302139,
          15118.264013695529, 6916.57497538937, 3525.781531963543,
          2466.814339307172, 768.5934453965789, 145.50454278496537,
          290.30921730496203
        ],
        "sum_prediction": [
          -934.1872461315461, -1037.7292097961301, -2674.6721252006455,
          -5513.93236840459, -11075.329789397148, -20558.282163359847,
          -38108.12382777196, -59804.82968243355, -106564.19306247556,
          -167447.62003505544, -259102.1077941707, -383957.2881523181,
          -539067.2570973613, -723092.1726885529, -949729.1365837593,
          -1148825.894770836, -1322204.710226065, -1458044.5613237584,
          -1518323.6217998113, -1476012.1017290289, -1283927.6388726057,
          -1008375.4245128928, -557278.3525714147, -163448.30387103342,
          314683.02597560047, 792941.6562273783, 1160728.81595427,
          1422445.97078952, 1527176.7359693174, 1529676.4586529478,
          1432015.1584013777, 1226845.134306629, 1038587.2472570364,
          832740.1136154988, 617001.4342369136, 448200.0150449646,
          310931.25657106517, 208715.0745650922, 133813.84331803865,
          82710.21280715843, 47055.681461403336, 27498.596278121728,
          15296.935887626392, 7015.9226844146415, 3457.659452174053,
          2532.747392588757, 776.7571977573651, 134.75587081035297,
          281.28000293648586
        ],
        "sum_weight": [
          5, 6, 20, 43, 89, 183, 355, 581, 1114, 1846, 3113, 5015, 7437, 11203,
          16020, 21955, 29178, 37108, 46018, 54992, 62847, 69833, 73604, 75951,
          75846, 72289, 66586, 59371, 50753, 41613, 33126, 25041, 18654, 13504,
          9158, 6153, 3831, 2396, 1427, 823, 449, 228, 124, 59, 29, 16, 5, 1, 2
        ],
        "wtd_avg_prediction": [
          -186.83744922630922, -172.954868299355, -133.73360626003227,
          -128.23098531173466, -124.44190774603538, -112.34033969049096,
          -107.34682768386467, -102.9343023794037, -95.65906019970876,
          -90.70835321508962, -83.23228647419553, -76.56177231352305,
          -72.48450411420751, -64.54451242422145, -59.28396607888635,
          -52.32639010570877, -45.31512475927291, -39.29191983733315,
          -32.994124512143316, -26.840487738744343, -20.42941809271096,
          -14.439812474229846, -7.571305262912541, -2.1520230658060253,
          4.1489732612873516, 10.969050010753756, 17.432024989551408,
          23.958598824165335, 30.090373691590987, 36.75958134844755,
          43.22934125464523, 48.99345610425418, 55.67638293433239,
          61.66618139925198, 67.37294542879597, 72.84251829107177,
          81.16190461265079, 87.10979739778472, 93.77284044711888,
          100.4984359746761, 104.8010722971121, 120.6078784128146,
          123.36238619053542, 118.91394380363799, 119.2296362818639,
          158.29671203679732, 155.35143955147302, 134.75587081035297,
          140.64000146824293
        ],
        "wtd_avg_target": [
          -191.05110745889698, -168.594900054752, -133.82391665792414,
          -127.07256012216025, -125.45342963172861, -112.05022059766503,
          -106.4623251848795, -102.65556221651977, -95.24375688235317,
          -90.87954893338863, -82.86794962519896, -76.30583426261752,
          -72.05346830638966, -64.50370901664832, -59.42685405271654,
          -52.40994795060146, -45.408227712167665, -39.38731504492864,
          -33.01164770970398, -26.946247673746882, -20.458990175204253,
          -14.353691612687161, -7.580216798900186, -2.224412547521997,
          4.110062518079183, 10.987290205963083, 17.449294533852274,
          23.952336119513788, 30.076860536097573, 36.72678438417774,
          43.290960209428135, 49.01451044022836, 55.50326515150848,
          61.719816314182395, 67.4594333086767, 72.93036568382936,
          81.24608696088161, 86.98600916486045, 93.43242138942037,
          99.92683770024422, 104.57015769078237, 119.69332716237452,
          121.92148398141555, 117.23008432863338, 121.57867351598424,
          154.17589620669824, 153.71868907931577, 145.50454278496537,
          145.15460865248102
        ]
      }
    }
  ]
}
